digraph Tree {
node [shape=box] ;
0 [label="OverTime_No <= 0.5\ngini = 0.272\nsamples = 1029\nvalue = [862, 167]"] ;
1 [label="MonthlyIncome <= 3751.5\ngini = 0.434\nsamples = 289\nvalue = [197, 92]"] ;
0 -> 1 [labeldistance=2.5, labelangle=45, headlabel="True"] ;
2 [label="EnvironmentSatisfaction <= 1.5\ngini = 0.488\nsamples = 104\nvalue = [44, 60]"] ;
1 -> 2 ;
3 [label="YearsWithCurrManager <= 7.5\ngini = 0.117\nsamples = 16\nvalue = [1, 15]"] ;
2 -> 3 ;
4 [label="gini = 0.0\nsamples = 15\nvalue = [0, 15]"] ;
3 -> 4 ;
5 [label="gini = 0.0\nsamples = 1\nvalue = [1, 0]"] ;
3 -> 5 ;
6 [label="PercentSalaryHike <= 20.5\ngini = 0.5\nsamples = 88\nvalue = [43, 45]"] ;
2 -> 6 ;
7 [label="Age <= 30.5\ngini = 0.494\nsamples = 76\nvalue = [42, 34]"] ;
6 -> 7 ;
8 [label="YearsWithCurrManager <= 0.5\ngini = 0.463\nsamples = 33\nvalue = [12, 21]"] ;
7 -> 8 ;
9 [label="MonthlyIncome <= 2930.5\ngini = 0.153\nsamples = 12\nvalue = [1, 11]"] ;
8 -> 9 ;
10 [label="gini = 0.0\nsamples = 11\nvalue = [0, 11]"] ;
9 -> 10 ;
11 [label="gini = 0.0\nsamples = 1\nvalue = [1, 0]"] ;
9 -> 11 ;
12 [label="YearsWithCurrManager <= 3.5\ngini = 0.499\nsamples = 21\nvalue = [11, 10]"] ;
8 -> 12 ;
13 [label="TrainingTimesLastYear <= 2.5\ngini = 0.43\nsamples = 16\nvalue = [11, 5]"] ;
12 -> 13 ;
14 [label="gini = 0.0\nsamples = 8\nvalue = [8, 0]"] ;
13 -> 14 ;
15 [label="EmployeeNumber <= 1104.0\ngini = 0.469\nsamples = 8\nvalue = [3, 5]"] ;
13 -> 15 ;
16 [label="gini = 0.0\nsamples = 5\nvalue = [0, 5]"] ;
15 -> 16 ;
17 [label="gini = 0.0\nsamples = 3\nvalue = [3, 0]"] ;
15 -> 17 ;
18 [label="gini = 0.0\nsamples = 5\nvalue = [0, 5]"] ;
12 -> 18 ;
19 [label="BusinessTravel_Travel_Frequently <= 0.5\ngini = 0.422\nsamples = 43\nvalue = [30, 13]"] ;
7 -> 19 ;
20 [label="MaritalStatus_Single <= 0.5\ngini = 0.305\nsamples = 32\nvalue = [26, 6]"] ;
19 -> 20 ;
21 [label="YearsInCurrentRole <= 3.5\ngini = 0.153\nsamples = 24\nvalue = [22, 2]"] ;
20 -> 21 ;
22 [label="gini = 0.0\nsamples = 18\nvalue = [18, 0]"] ;
21 -> 22 ;
23 [label="Education <= 2.5\ngini = 0.444\nsamples = 6\nvalue = [4, 2]"] ;
21 -> 23 ;
24 [label="gini = 0.0\nsamples = 4\nvalue = [4, 0]"] ;
23 -> 24 ;
25 [label="gini = 0.0\nsamples = 2\nvalue = [0, 2]"] ;
23 -> 25 ;
26 [label="PercentSalaryHike <= 15.5\ngini = 0.5\nsamples = 8\nvalue = [4, 4]"] ;
20 -> 26 ;
27 [label="JobSatisfaction <= 2.0\ngini = 0.32\nsamples = 5\nvalue = [1, 4]"] ;
26 -> 27 ;
28 [label="gini = 0.0\nsamples = 1\nvalue = [1, 0]"] ;
27 -> 28 ;
29 [label="gini = 0.0\nsamples = 4\nvalue = [0, 4]"] ;
27 -> 29 ;
30 [label="gini = 0.0\nsamples = 3\nvalue = [3, 0]"] ;
26 -> 30 ;
31 [label="DailyRate <= 1226.0\ngini = 0.463\nsamples = 11\nvalue = [4, 7]"] ;
19 -> 31 ;
32 [label="EmployeeNumber <= 577.5\ngini = 0.219\nsamples = 8\nvalue = [1, 7]"] ;
31 -> 32 ;
33 [label="gini = 0.0\nsamples = 1\nvalue = [1, 0]"] ;
32 -> 33 ;
34 [label="gini = 0.0\nsamples = 7\nvalue = [0, 7]"] ;
32 -> 34 ;
35 [label="gini = 0.0\nsamples = 3\nvalue = [3, 0]"] ;
31 -> 35 ;
36 [label="PercentSalaryHike <= 24.5\ngini = 0.153\nsamples = 12\nvalue = [1, 11]"] ;
6 -> 36 ;
37 [label="gini = 0.0\nsamples = 11\nvalue = [0, 11]"] ;
36 -> 37 ;
38 [label="gini = 0.0\nsamples = 1\nvalue = [1, 0]"] ;
36 -> 38 ;
39 [label="JobRole_Sales Executive <= 0.5\ngini = 0.286\nsamples = 185\nvalue = [153, 32]"] ;
1 -> 39 ;
40 [label="NumCompaniesWorked <= 8.5\ngini = 0.159\nsamples = 126\nvalue = [115, 11]"] ;
39 -> 40 ;
41 [label="Age <= 23.0\ngini = 0.112\nsamples = 118\nvalue = [111, 7]"] ;
40 -> 41 ;
42 [label="gini = 0.0\nsamples = 1\nvalue = [0, 1]"] ;
41 -> 42 ;
43 [label="DistanceFromHome <= 14.5\ngini = 0.097\nsamples = 117\nvalue = [111, 6]"] ;
41 -> 43 ;
44 [label="PercentSalaryHike <= 23.5\ngini = 0.024\nsamples = 84\nvalue = [83, 1]"] ;
43 -> 44 ;
45 [label="gini = 0.0\nsamples = 80\nvalue = [80, 0]"] ;
44 -> 45 ;
46 [label="MonthlyIncome <= 6475.5\ngini = 0.375\nsamples = 4\nvalue = [3, 1]"] ;
44 -> 46 ;
47 [label="gini = 0.0\nsamples = 1\nvalue = [0, 1]"] ;
46 -> 47 ;
48 [label="gini = 0.0\nsamples = 3\nvalue = [3, 0]"] ;
46 -> 48 ;
49 [label="YearsSinceLastPromotion <= 5.5\ngini = 0.257\nsamples = 33\nvalue = [28, 5]"] ;
43 -> 49 ;
50 [label="TotalWorkingYears <= 8.5\ngini = 0.08\nsamples = 24\nvalue = [23, 1]"] ;
49 -> 50 ;
51 [label="YearsInCurrentRole <= 1.0\ngini = 0.5\nsamples = 2\nvalue = [1, 1]"] ;
50 -> 51 ;
52 [label="gini = 0.0\nsamples = 1\nvalue = [0, 1]"] ;
51 -> 52 ;
53 [label="gini = 0.0\nsamples = 1\nvalue = [1, 0]"] ;
51 -> 53 ;
54 [label="gini = 0.0\nsamples = 22\nvalue = [22, 0]"] ;
50 -> 54 ;
55 [label="TotalWorkingYears <= 15.5\ngini = 0.494\nsamples = 9\nvalue = [5, 4]"] ;
49 -> 55 ;
56 [label="EmployeeNumber <= 1699.0\ngini = 0.32\nsamples = 5\nvalue = [1, 4]"] ;
55 -> 56 ;
57 [label="gini = 0.0\nsamples = 4\nvalue = [0, 4]"] ;
56 -> 57 ;
58 [label="gini = 0.0\nsamples = 1\nvalue = [1, 0]"] ;
56 -> 58 ;
59 [label="gini = 0.0\nsamples = 4\nvalue = [4, 0]"] ;
55 -> 59 ;
60 [label="EnvironmentSatisfaction <= 2.5\ngini = 0.5\nsamples = 8\nvalue = [4, 4]"] ;
40 -> 60 ;
61 [label="gini = 0.0\nsamples = 4\nvalue = [0, 4]"] ;
60 -> 61 ;
62 [label="gini = 0.0\nsamples = 4\nvalue = [4, 0]"] ;
60 -> 62 ;
63 [label="MaritalStatus_Single <= 0.5\ngini = 0.458\nsamples = 59\nvalue = [38, 21]"] ;
39 -> 63 ;
64 [label="YearsAtCompany <= 4.5\ngini = 0.295\nsamples = 39\nvalue = [32, 7]"] ;
63 -> 64 ;
65 [label="JobSatisfaction <= 3.5\ngini = 0.497\nsamples = 13\nvalue = [7, 6]"] ;
64 -> 65 ;
66 [label="DistanceFromHome <= 2.5\ngini = 0.375\nsamples = 8\nvalue = [2, 6]"] ;
65 -> 66 ;
67 [label="gini = 0.0\nsamples = 2\nvalue = [2, 0]"] ;
66 -> 67 ;
68 [label="gini = 0.0\nsamples = 6\nvalue = [0, 6]"] ;
66 -> 68 ;
69 [label="gini = 0.0\nsamples = 5\nvalue = [5, 0]"] ;
65 -> 69 ;
70 [label="TrainingTimesLastYear <= 5.5\ngini = 0.074\nsamples = 26\nvalue = [25, 1]"] ;
64 -> 70 ;
71 [label="gini = 0.0\nsamples = 24\nvalue = [24, 0]"] ;
70 -> 71 ;
72 [label="WorkLifeBalance <= 2.5\ngini = 0.5\nsamples = 2\nvalue = [1, 1]"] ;
70 -> 72 ;
73 [label="gini = 0.0\nsamples = 1\nvalue = [1, 0]"] ;
72 -> 73 ;
74 [label="gini = 0.0\nsamples = 1\nvalue = [0, 1]"] ;
72 -> 74 ;
75 [label="YearsSinceLastPromotion <= 1.5\ngini = 0.42\nsamples = 20\nvalue = [6, 14]"] ;
63 -> 75 ;
76 [label="JobInvolvement <= 3.5\ngini = 0.5\nsamples = 12\nvalue = [6, 6]"] ;
75 -> 76 ;
77 [label="DistanceFromHome <= 2.0\ngini = 0.444\nsamples = 9\nvalue = [6, 3]"] ;
76 -> 77 ;
78 [label="gini = 0.0\nsamples = 2\nvalue = [0, 2]"] ;
77 -> 78 ;
79 [label="NumCompaniesWorked <= 0.5\ngini = 0.245\nsamples = 7\nvalue = [6, 1]"] ;
77 -> 79 ;
80 [label="gini = 0.0\nsamples = 1\nvalue = [0, 1]"] ;
79 -> 80 ;
81 [label="gini = 0.0\nsamples = 6\nvalue = [6, 0]"] ;
79 -> 81 ;
82 [label="gini = 0.0\nsamples = 3\nvalue = [0, 3]"] ;
76 -> 82 ;
83 [label="gini = 0.0\nsamples = 8\nvalue = [0, 8]"] ;
75 -> 83 ;
84 [label="TotalWorkingYears <= 1.5\ngini = 0.182\nsamples = 740\nvalue = [665, 75]"] ;
0 -> 84 [labeldistance=2.5, labelangle=-45, headlabel="False"] ;
85 [label="JobRole_Research Scientist <= 0.5\ngini = 0.485\nsamples = 41\nvalue = [24, 17]"] ;
84 -> 85 ;
86 [label="HourlyRate <= 58.5\ngini = 0.49\nsamples = 28\nvalue = [12, 16]"] ;
85 -> 86 ;
87 [label="Age <= 33.0\ngini = 0.165\nsamples = 11\nvalue = [1, 10]"] ;
86 -> 87 ;
88 [label="gini = 0.0\nsamples = 10\nvalue = [0, 10]"] ;
87 -> 88 ;
89 [label="gini = 0.0\nsamples = 1\nvalue = [1, 0]"] ;
87 -> 89 ;
90 [label="MonthlyIncome <= 2364.5\ngini = 0.457\nsamples = 17\nvalue = [11, 6]"] ;
86 -> 90 ;
91 [label="MonthlyRate <= 11328.0\ngini = 0.444\nsamples = 9\nvalue = [3, 6]"] ;
90 -> 91 ;
92 [label="MonthlyIncome <= 2168.5\ngini = 0.444\nsamples = 3\nvalue = [2, 1]"] ;
91 -> 92 ;
93 [label="gini = 0.0\nsamples = 2\nvalue = [2, 0]"] ;
92 -> 93 ;
94 [label="gini = 0.0\nsamples = 1\nvalue = [0, 1]"] ;
92 -> 94 ;
95 [label="EmployeeNumber <= 218.0\ngini = 0.278\nsamples = 6\nvalue = [1, 5]"] ;
91 -> 95 ;
96 [label="gini = 0.0\nsamples = 1\nvalue = [1, 0]"] ;
95 -> 96 ;
97 [label="gini = 0.0\nsamples = 5\nvalue = [0, 5]"] ;
95 -> 97 ;
98 [label="gini = 0.0\nsamples = 8\nvalue = [8, 0]"] ;
90 -> 98 ;
99 [label="Education <= 1.5\ngini = 0.142\nsamples = 13\nvalue = [12, 1]"] ;
85 -> 99 ;
100 [label="gini = 0.0\nsamples = 1\nvalue = [0, 1]"] ;
99 -> 100 ;
101 [label="gini = 0.0\nsamples = 12\nvalue = [12, 0]"] ;
99 -> 101 ;
102 [label="WorkLifeBalance <= 1.5\ngini = 0.152\nsamples = 699\nvalue = [641, 58]"] ;
84 -> 102 ;
103 [label="YearsWithCurrManager <= 0.5\ngini = 0.399\nsamples = 40\nvalue = [29, 11]"] ;
102 -> 103 ;
104 [label="JobLevel <= 2.5\ngini = 0.278\nsamples = 6\nvalue = [1, 5]"] ;
103 -> 104 ;
105 [label="gini = 0.0\nsamples = 5\nvalue = [0, 5]"] ;
104 -> 105 ;
106 [label="gini = 0.0\nsamples = 1\nvalue = [1, 0]"] ;
104 -> 106 ;
107 [label="YearsSinceLastPromotion <= 6.0\ngini = 0.291\nsamples = 34\nvalue = [28, 6]"] ;
103 -> 107 ;
108 [label="TotalWorkingYears <= 2.5\ngini = 0.18\nsamples = 30\nvalue = [27, 3]"] ;
107 -> 108 ;
109 [label="gini = 0.0\nsamples = 1\nvalue = [0, 1]"] ;
108 -> 109 ;
110 [label="JobRole_Sales Executive <= 0.5\ngini = 0.128\nsamples = 29\nvalue = [27, 2]"] ;
108 -> 110 ;
111 [label="HourlyRate <= 99.0\ngini = 0.071\nsamples = 27\nvalue = [26, 1]"] ;
110 -> 111 ;
112 [label="gini = 0.0\nsamples = 24\nvalue = [24, 0]"] ;
111 -> 112 ;
113 [label="NumCompaniesWorked <= 3.5\ngini = 0.444\nsamples = 3\nvalue = [2, 1]"] ;
111 -> 113 ;
114 [label="gini = 0.0\nsamples = 2\nvalue = [2, 0]"] ;
113 -> 114 ;
115 [label="gini = 0.0\nsamples = 1\nvalue = [0, 1]"] ;
113 -> 115 ;
116 [label="NumCompaniesWorked <= 1.0\ngini = 0.5\nsamples = 2\nvalue = [1, 1]"] ;
110 -> 116 ;
117 [label="gini = 0.0\nsamples = 1\nvalue = [1, 0]"] ;
116 -> 117 ;
118 [label="gini = 0.0\nsamples = 1\nvalue = [0, 1]"] ;
116 -> 118 ;
119 [label="EducationField_Medical <= 0.5\ngini = 0.375\nsamples = 4\nvalue = [1, 3]"] ;
107 -> 119 ;
120 [label="gini = 0.0\nsamples = 3\nvalue = [0, 3]"] ;
119 -> 120 ;
121 [label="gini = 0.0\nsamples = 1\nvalue = [1, 0]"] ;
119 -> 121 ;
122 [label="YearsAtCompany <= 31.5\ngini = 0.132\nsamples = 659\nvalue = [612, 47]"] ;
102 -> 122 ;
123 [label="StockOptionLevel <= 0.5\ngini = 0.126\nsamples = 654\nvalue = [610, 44]"] ;
122 -> 123 ;
124 [label="JobSatisfaction <= 1.5\ngini = 0.202\nsamples = 255\nvalue = [226, 29]"] ;
123 -> 124 ;
125 [label="RelationshipSatisfaction <= 1.5\ngini = 0.394\nsamples = 37\nvalue = [27, 10]"] ;
124 -> 125 ;
126 [label="gini = 0.0\nsamples = 4\nvalue = [0, 4]"] ;
125 -> 126 ;
127 [label="NumCompaniesWorked <= 4.5\ngini = 0.298\nsamples = 33\nvalue = [27, 6]"] ;
125 -> 127 ;
128 [label="YearsAtCompany <= 16.5\ngini = 0.083\nsamples = 23\nvalue = [22, 1]"] ;
127 -> 128 ;
129 [label="gini = 0.0\nsamples = 22\nvalue = [22, 0]"] ;
128 -> 129 ;
130 [label="gini = 0.0\nsamples = 1\nvalue = [0, 1]"] ;
128 -> 130 ;
131 [label="YearsWithCurrManager <= 4.0\ngini = 0.5\nsamples = 10\nvalue = [5, 5]"] ;
127 -> 131 ;
132 [label="JobRole_Research Scientist <= 0.5\ngini = 0.278\nsamples = 6\nvalue = [1, 5]"] ;
131 -> 132 ;
133 [label="gini = 0.0\nsamples = 5\nvalue = [0, 5]"] ;
132 -> 133 ;
134 [label="gini = 0.0\nsamples = 1\nvalue = [1, 0]"] ;
132 -> 134 ;
135 [label="gini = 0.0\nsamples = 4\nvalue = [4, 0]"] ;
131 -> 135 ;
136 [label="EmployeeNumber <= 1193.0\ngini = 0.159\nsamples = 218\nvalue = [199, 19]"] ;
124 -> 136 ;
137 [label="MonthlyRate <= 24992.5\ngini = 0.228\nsamples = 137\nvalue = [119, 18]"] ;
136 -> 137 ;
138 [label="EmployeeNumber <= 1180.5\ngini = 0.195\nsamples = 128\nvalue = [114, 14]"] ;
137 -> 138 ;
139 [label="Age <= 20.5\ngini = 0.184\nsamples = 127\nvalue = [114, 13]"] ;
138 -> 139 ;
140 [label="gini = 0.0\nsamples = 1\nvalue = [0, 1]"] ;
139 -> 140 ;
141 [label="EducationField_Technical Degree <= 0.5\ngini = 0.172\nsamples = 126\nvalue = [114, 12]"] ;
139 -> 141 ;
142 [label="YearsSinceLastPromotion <= 2.5\ngini = 0.131\nsamples = 114\nvalue = [106, 8]"] ;
141 -> 142 ;
143 [label="DailyRate <= 1450.5\ngini = 0.069\nsamples = 84\nvalue = [81, 3]"] ;
142 -> 143 ;
144 [label="YearsWithCurrManager <= 1.5\ngini = 0.047\nsamples = 83\nvalue = [81, 2]"] ;
143 -> 144 ;
145 [label="Age <= 33.0\ngini = 0.159\nsamples = 23\nvalue = [21, 2]"] ;
144 -> 145 ;
146 [label="JobInvolvement <= 2.5\ngini = 0.5\nsamples = 4\nvalue = [2, 2]"] ;
145 -> 146 ;
147 [label="gini = 0.0\nsamples = 2\nvalue = [2, 0]"] ;
146 -> 147 ;
148 [label="gini = 0.0\nsamples = 2\nvalue = [0, 2]"] ;
146 -> 148 ;
149 [label="gini = 0.0\nsamples = 19\nvalue = [19, 0]"] ;
145 -> 149 ;
150 [label="gini = 0.0\nsamples = 60\nvalue = [60, 0]"] ;
144 -> 150 ;
151 [label="gini = 0.0\nsamples = 1\nvalue = [0, 1]"] ;
143 -> 151 ;
152 [label="DailyRate <= 828.0\ngini = 0.278\nsamples = 30\nvalue = [25, 5]"] ;
142 -> 152 ;
153 [label="EducationField_Life Sciences <= 0.5\ngini = 0.473\nsamples = 13\nvalue = [8, 5]"] ;
152 -> 153 ;
154 [label="HourlyRate <= 34.5\ngini = 0.278\nsamples = 6\nvalue = [1, 5]"] ;
153 -> 154 ;
155 [label="gini = 0.0\nsamples = 1\nvalue = [1, 0]"] ;
154 -> 155 ;
156 [label="gini = 0.0\nsamples = 5\nvalue = [0, 5]"] ;
154 -> 156 ;
157 [label="gini = 0.0\nsamples = 7\nvalue = [7, 0]"] ;
153 -> 157 ;
158 [label="gini = 0.0\nsamples = 17\nvalue = [17, 0]"] ;
152 -> 158 ;
159 [label="EmployeeNumber <= 309.5\ngini = 0.444\nsamples = 12\nvalue = [8, 4]"] ;
141 -> 159 ;
160 [label="gini = 0.0\nsamples = 2\nvalue = [0, 2]"] ;
159 -> 160 ;
161 [label="YearsAtCompany <= 2.5\ngini = 0.32\nsamples = 10\nvalue = [8, 2]"] ;
159 -> 161 ;
162 [label="gini = 0.0\nsamples = 2\nvalue = [0, 2]"] ;
161 -> 162 ;
163 [label="gini = 0.0\nsamples = 8\nvalue = [8, 0]"] ;
161 -> 163 ;
164 [label="gini = 0.0\nsamples = 1\nvalue = [0, 1]"] ;
138 -> 164 ;
165 [label="YearsAtCompany <= 4.5\ngini = 0.494\nsamples = 9\nvalue = [5, 4]"] ;
137 -> 165 ;
166 [label="gini = 0.0\nsamples = 3\nvalue = [0, 3]"] ;
165 -> 166 ;
167 [label="JobSatisfaction <= 3.5\ngini = 0.278\nsamples = 6\nvalue = [5, 1]"] ;
165 -> 167 ;
168 [label="gini = 0.0\nsamples = 5\nvalue = [5, 0]"] ;
167 -> 168 ;
169 [label="gini = 0.0\nsamples = 1\nvalue = [0, 1]"] ;
167 -> 169 ;
170 [label="YearsAtCompany <= 0.5\ngini = 0.024\nsamples = 81\nvalue = [80, 1]"] ;
136 -> 170 ;
171 [label="RelationshipSatisfaction <= 2.5\ngini = 0.32\nsamples = 5\nvalue = [4, 1]"] ;
170 -> 171 ;
172 [label="gini = 0.0\nsamples = 1\nvalue = [0, 1]"] ;
171 -> 172 ;
173 [label="gini = 0.0\nsamples = 4\nvalue = [4, 0]"] ;
171 -> 173 ;
174 [label="gini = 0.0\nsamples = 76\nvalue = [76, 0]"] ;
170 -> 174 ;
175 [label="MonthlyRate <= 12265.5\ngini = 0.072\nsamples = 399\nvalue = [384, 15]"] ;
123 -> 175 ;
176 [label="MonthlyRate <= 12247.0\ngini = 0.127\nsamples = 176\nvalue = [164, 12]"] ;
175 -> 176 ;
177 [label="MonthlyIncome <= 2183.5\ngini = 0.118\nsamples = 175\nvalue = [164, 11]"] ;
176 -> 177 ;
178 [label="DailyRate <= 1026.5\ngini = 0.48\nsamples = 5\nvalue = [3, 2]"] ;
177 -> 178 ;
179 [label="gini = 0.0\nsamples = 2\nvalue = [0, 2]"] ;
178 -> 179 ;
180 [label="gini = 0.0\nsamples = 3\nvalue = [3, 0]"] ;
178 -> 180 ;
181 [label="JobRole_Laboratory Technician <= 0.5\ngini = 0.1\nsamples = 170\nvalue = [161, 9]"] ;
177 -> 181 ;
182 [label="HourlyRate <= 99.5\ngini = 0.054\nsamples = 145\nvalue = [141, 4]"] ;
181 -> 182 ;
183 [label="WorkLifeBalance <= 3.5\ngini = 0.041\nsamples = 142\nvalue = [139, 3]"] ;
182 -> 183 ;
184 [label="YearsSinceLastPromotion <= 5.5\ngini = 0.016\nsamples = 126\nvalue = [125, 1]"] ;
183 -> 184 ;
185 [label="gini = 0.0\nsamples = 104\nvalue = [104, 0]"] ;
184 -> 185 ;
186 [label="Age <= 30.5\ngini = 0.087\nsamples = 22\nvalue = [21, 1]"] ;
184 -> 186 ;
187 [label="YearsSinceLastPromotion <= 6.5\ngini = 0.444\nsamples = 3\nvalue = [2, 1]"] ;
186 -> 187 ;
188 [label="gini = 0.0\nsamples = 1\nvalue = [0, 1]"] ;
187 -> 188 ;
189 [label="gini = 0.0\nsamples = 2\nvalue = [2, 0]"] ;
187 -> 189 ;
190 [label="gini = 0.0\nsamples = 19\nvalue = [19, 0]"] ;
186 -> 190 ;
191 [label="EmployeeNumber <= 1744.5\ngini = 0.219\nsamples = 16\nvalue = [14, 2]"] ;
183 -> 191 ;
192 [label="EducationField_Marketing <= 0.5\ngini = 0.124\nsamples = 15\nvalue = [14, 1]"] ;
191 -> 192 ;
193 [label="gini = 0.0\nsamples = 13\nvalue = [13, 0]"] ;
192 -> 193 ;
194 [label="DailyRate <= 943.5\ngini = 0.5\nsamples = 2\nvalue = [1, 1]"] ;
192 -> 194 ;
195 [label="gini = 0.0\nsamples = 1\nvalue = [1, 0]"] ;
194 -> 195 ;
196 [label="gini = 0.0\nsamples = 1\nvalue = [0, 1]"] ;
194 -> 196 ;
197 [label="gini = 0.0\nsamples = 1\nvalue = [0, 1]"] ;
191 -> 197 ;
198 [label="YearsWithCurrManager <= 3.5\ngini = 0.444\nsamples = 3\nvalue = [2, 1]"] ;
182 -> 198 ;
199 [label="gini = 0.0\nsamples = 1\nvalue = [0, 1]"] ;
198 -> 199 ;
200 [label="gini = 0.0\nsamples = 2\nvalue = [2, 0]"] ;
198 -> 200 ;
201 [label="BusinessTravel_Travel_Frequently <= 0.5\ngini = 0.32\nsamples = 25\nvalue = [20, 5]"] ;
181 -> 201 ;
202 [label="NumCompaniesWorked <= 4.5\ngini = 0.227\nsamples = 23\nvalue = [20, 3]"] ;
201 -> 202 ;
203 [label="gini = 0.0\nsamples = 16\nvalue = [16, 0]"] ;
202 -> 203 ;
204 [label="MonthlyRate <= 6379.5\ngini = 0.49\nsamples = 7\nvalue = [4, 3]"] ;
202 -> 204 ;
205 [label="gini = 0.0\nsamples = 3\nvalue = [3, 0]"] ;
204 -> 205 ;
206 [label="YearsWithCurrManager <= 5.5\ngini = 0.375\nsamples = 4\nvalue = [1, 3]"] ;
204 -> 206 ;
207 [label="gini = 0.0\nsamples = 3\nvalue = [0, 3]"] ;
206 -> 207 ;
208 [label="gini = 0.0\nsamples = 1\nvalue = [1, 0]"] ;
206 -> 208 ;
209 [label="gini = 0.0\nsamples = 2\nvalue = [0, 2]"] ;
201 -> 209 ;
210 [label="gini = 0.0\nsamples = 1\nvalue = [0, 1]"] ;
176 -> 210 ;
211 [label="Age <= 28.5\ngini = 0.027\nsamples = 223\nvalue = [220, 3]"] ;
175 -> 211 ;
212 [label="NumCompaniesWorked <= 3.5\ngini = 0.172\nsamples = 21\nvalue = [19, 2]"] ;
211 -> 212 ;
213 [label="JobRole_Sales Representative <= 0.5\ngini = 0.095\nsamples = 20\nvalue = [19, 1]"] ;
212 -> 213 ;
214 [label="gini = 0.0\nsamples = 19\nvalue = [19, 0]"] ;
213 -> 214 ;
215 [label="gini = 0.0\nsamples = 1\nvalue = [0, 1]"] ;
213 -> 215 ;
216 [label="gini = 0.0\nsamples = 1\nvalue = [0, 1]"] ;
212 -> 216 ;
217 [label="DailyRate <= 206.5\ngini = 0.01\nsamples = 202\nvalue = [201, 1]"] ;
211 -> 217 ;
218 [label="JobRole_Healthcare Representative <= 0.5\ngini = 0.165\nsamples = 11\nvalue = [10, 1]"] ;
217 -> 218 ;
219 [label="gini = 0.0\nsamples = 10\nvalue = [10, 0]"] ;
218 -> 219 ;
220 [label="gini = 0.0\nsamples = 1\nvalue = [0, 1]"] ;
218 -> 220 ;
221 [label="gini = 0.0\nsamples = 191\nvalue = [191, 0]"] ;
217 -> 221 ;
222 [label="Gender_Male <= 0.5\ngini = 0.48\nsamples = 5\nvalue = [2, 3]"] ;
122 -> 222 ;
223 [label="gini = 0.0\nsamples = 3\nvalue = [0, 3]"] ;
222 -> 223 ;
224 [label="gini = 0.0\nsamples = 2\nvalue = [2, 0]"] ;
222 -> 224 ;
}